Language model created by QuickLM on Tue Jul 18 11:36:18 EDT 2017
Copyright (c) 1996-2010 Carnegie Mellon University and Alexander I. Rudnicky

The model is in standard ARPA format, designed by Doug Paul while he was at MITRE.

The code that was used to produce this language model is available in Open Source.
Please visit http://www.speech.cs.cmu.edu/tools/ for more information

The (fixed) discount mass is 0.5. The backoffs are computed using the ratio method.
This model based on a corpus of 31 sentences and 33 words

\data\
ngram 1=33
ngram 2=62
ngram 3=31

\1-grams:
-2.2695 0 -0.2218
-2.2695 1 -0.2218
-2.2695 10 -0.2218
-2.2695 11 -0.2218
-2.2695 12 -0.2218
-2.2695 2 -0.2218
-2.2695 3 -0.2218
-2.2695 4 -0.2218
-2.2695 5 -0.2218
-2.2695 6 -0.2218
-2.2695 7 -0.2218
-2.2695 8 -0.2218
-2.2695 9 -0.2218
-0.7782 </s> -0.3010
-0.7782 <s> -0.2218
-2.2695 A -0.2218
-2.2695 AM -0.2218
-2.2695 AN -0.2218
-2.2695 APPOINTMENT -0.2218
-2.2695 AT -0.2218
-2.2695 BREAD -0.2218
-2.2695 CHEESE -0.2218
-2.2695 EGGS -0.2218
-2.2695 LETTUCE -0.2218
-2.2695 MATRIX -0.2218
-2.2695 ME -0.2218
-2.2695 MEETING -0.2218
-2.2695 MILK -0.2218
-2.2695 NOTE -0.2218
-2.2695 PM -0.2218
-2.2695 REMIND -0.2218
-2.2695 SCHEDULE -0.2218
-2.2695 THE -0.2218

\2-grams:
-0.3010 0 </s> -0.3010
-0.3010 1 </s> -0.3010
-0.3010 10 </s> -0.3010
-0.3010 11 </s> -0.3010
-0.3010 12 </s> -0.3010
-0.3010 2 </s> -0.3010
-0.3010 3 </s> -0.3010
-0.3010 4 </s> -0.3010
-0.3010 5 </s> -0.3010
-0.3010 6 </s> -0.3010
-0.3010 7 </s> -0.3010
-0.3010 8 </s> -0.3010
-0.3010 9 </s> -0.3010
-1.7924 <s> 0 0.0000
-1.7924 <s> 1 0.0000
-1.7924 <s> 10 0.0000
-1.7924 <s> 11 0.0000
-1.7924 <s> 12 0.0000
-1.7924 <s> 2 0.0000
-1.7924 <s> 3 0.0000
-1.7924 <s> 4 0.0000
-1.7924 <s> 5 0.0000
-1.7924 <s> 6 0.0000
-1.7924 <s> 7 0.0000
-1.7924 <s> 8 0.0000
-1.7924 <s> 9 0.0000
-1.7924 <s> A 0.0000
-1.7924 <s> AM 0.0000
-1.7924 <s> AN 0.0000
-1.7924 <s> APPOINTMENT 0.0000
-1.7924 <s> AT 0.0000
-1.7924 <s> BREAD 0.0000
-1.7924 <s> CHEESE 0.0000
-1.7924 <s> EGGS 0.0000
-1.7924 <s> LETTUCE 0.0000
-1.7924 <s> MATRIX 0.0000
-1.7924 <s> ME 0.0000
-1.7924 <s> MEETING 0.0000
-1.7924 <s> MILK 0.0000
-1.7924 <s> NOTE 0.0000
-1.7924 <s> PM 0.0000
-1.7924 <s> REMIND 0.0000
-1.7924 <s> SCHEDULE 0.0000
-1.7924 <s> THE 0.0000
-0.3010 A </s> -0.3010
-0.3010 AM </s> -0.3010
-0.3010 AN </s> -0.3010
-0.3010 APPOINTMENT </s> -0.3010
-0.3010 AT </s> -0.3010
-0.3010 BREAD </s> -0.3010
-0.3010 CHEESE </s> -0.3010
-0.3010 EGGS </s> -0.3010
-0.3010 LETTUCE </s> -0.3010
-0.3010 MATRIX </s> -0.3010
-0.3010 ME </s> -0.3010
-0.3010 MEETING </s> -0.3010
-0.3010 MILK </s> -0.3010
-0.3010 NOTE </s> -0.3010
-0.3010 PM </s> -0.3010
-0.3010 REMIND </s> -0.3010
-0.3010 SCHEDULE </s> -0.3010
-0.3010 THE </s> -0.3010

\3-grams:
-0.3010 <s> 0 </s>
-0.3010 <s> 1 </s>
-0.3010 <s> 10 </s>
-0.3010 <s> 11 </s>
-0.3010 <s> 12 </s>
-0.3010 <s> 2 </s>
-0.3010 <s> 3 </s>
-0.3010 <s> 4 </s>
-0.3010 <s> 5 </s>
-0.3010 <s> 6 </s>
-0.3010 <s> 7 </s>
-0.3010 <s> 8 </s>
-0.3010 <s> 9 </s>
-0.3010 <s> A </s>
-0.3010 <s> AM </s>
-0.3010 <s> AN </s>
-0.3010 <s> APPOINTMENT </s>
-0.3010 <s> AT </s>
-0.3010 <s> BREAD </s>
-0.3010 <s> CHEESE </s>
-0.3010 <s> EGGS </s>
-0.3010 <s> LETTUCE </s>
-0.3010 <s> MATRIX </s>
-0.3010 <s> ME </s>
-0.3010 <s> MEETING </s>
-0.3010 <s> MILK </s>
-0.3010 <s> NOTE </s>
-0.3010 <s> PM </s>
-0.3010 <s> REMIND </s>
-0.3010 <s> SCHEDULE </s>
-0.3010 <s> THE </s>

\end\
